digraph Tree {
node [shape=box, style="filled, rounded", color="black", fontname="helvetica"] ;
graph [ranksep=equally, splines=polyline] ;
edge [fontname="helvetica"] ;
0 [label=<hardship_flag &le; 0.5<br/>gini = 0.5<br/>samples = 12180<br/>value = [6090, 6090]>, fillcolor="#ffffff"] ;
1 [label=<home_ownership &le; 0.5<br/>gini = 0.5<br/>samples = 11832<br/>value = [5999, 5833]>, fillcolor="#fefcfa"] ;
0 -> 1 [labeldistance=2.5, labelangle=45, headlabel="True"] ;
2 [label=<application_type &le; 0.5<br/>gini = 0.497<br/>samples = 5654<br/>value = [3052, 2602]>, fillcolor="#fbece2"] ;
1 -> 2 ;
3 [label=<verification_status &le; 1.5<br/>gini = 0.495<br/>samples = 4568<br/>value = [2519, 2049]>, fillcolor="#fae7da"] ;
2 -> 3 ;
4 [label=<initial_list_status &le; 0.5<br/>gini = 0.492<br/>samples = 3883<br/>value = [2188, 1695]>, fillcolor="#f9e3d2"] ;
3 -> 4 ;
5 [label=<debt_settlement_flag &le; 0.5<br/>gini = 0.493<br/>samples = 3563<br/>value = [1989, 1574]>, fillcolor="#fae5d6"] ;
4 -> 5 ;
6 [label=<verification_status &le; 0.5<br/>gini = 0.493<br/>samples = 3560<br/>value = [1989, 1571]>, fillcolor="#fae5d5"] ;
5 -> 6 ;
7 [label=<gini = 0.491<br/>samples = 1713<br/>value = [972, 741]>, fillcolor="#f9e1d0"] ;
6 -> 7 ;
8 [label=<gini = 0.495<br/>samples = 1847<br/>value = [1017, 830]>, fillcolor="#fae8db"] ;
6 -> 8 ;
9 [label=<gini = 0.0<br/>samples = 3<br/>value = [0, 3]>, fillcolor="#399de5"] ;
5 -> 9 ;
10 [label=<verification_status &le; 0.5<br/>gini = 0.47<br/>samples = 320<br/>value = [199, 121]>, fillcolor="#f5ceb1"] ;
4 -> 10 ;
11 [label=<gini = 0.465<br/>samples = 182<br/>value = [115, 67]>, fillcolor="#f4caac"] ;
10 -> 11 ;
12 [label=<gini = 0.476<br/>samples = 138<br/>value = [84, 54]>, fillcolor="#f6d2b8"] ;
10 -> 12 ;
13 [label=<initial_list_status &le; 0.5<br/>gini = 0.499<br/>samples = 685<br/>value = [331, 354]>, fillcolor="#f2f9fd"] ;
3 -> 13 ;
14 [label=<gini = 0.5<br/>samples = 645<br/>value = [313, 332]>, fillcolor="#f4f9fe"] ;
13 -> 14 ;
15 [label=<gini = 0.495<br/>samples = 40<br/>value = [18, 22]>, fillcolor="#dbedfa"] ;
13 -> 15 ;
16 [label=<verification_status &le; 1.5<br/>gini = 0.5<br/>samples = 1086<br/>value = [533, 553]>, fillcolor="#f8fbfe"] ;
2 -> 16 ;
17 [label=<initial_list_status &le; 0.5<br/>gini = 0.499<br/>samples = 709<br/>value = [342, 367]>, fillcolor="#f2f8fd"] ;
16 -> 17 ;
18 [label=<verification_status &le; 0.5<br/>gini = 0.5<br/>samples = 658<br/>value = [319, 339]>, fillcolor="#f3f9fd"] ;
17 -> 18 ;
19 [label=<gini = 0.5<br/>samples = 407<br/>value = [198, 209]>, fillcolor="#f5fafe"] ;
18 -> 19 ;
20 [label=<gini = 0.499<br/>samples = 251<br/>value = [121, 130]>, fillcolor="#f1f8fd"] ;
18 -> 20 ;
21 [label=<verification_status &le; 0.5<br/>gini = 0.495<br/>samples = 51<br/>value = [23, 28]>, fillcolor="#dceefa"] ;
17 -> 21 ;
22 [label=<gini = 0.489<br/>samples = 33<br/>value = [14, 19]>, fillcolor="#cbe5f8"] ;
21 -> 22 ;
23 [label=<gini = 0.5<br/>samples = 18<br/>value = [9, 9]>, fillcolor="#ffffff"] ;
21 -> 23 ;
24 [label=<initial_list_status &le; 0.5<br/>gini = 0.5<br/>samples = 377<br/>value = [191, 186]>, fillcolor="#fefcfa"] ;
16 -> 24 ;
25 [label=<gini = 0.5<br/>samples = 361<br/>value = [182, 179]>, fillcolor="#fffdfc"] ;
24 -> 25 ;
26 [label=<gini = 0.492<br/>samples = 16<br/>value = [9, 7]>, fillcolor="#f9e3d3"] ;
24 -> 26 ;
27 [label=<verification_status &le; 0.5<br/>gini = 0.499<br/>samples = 6178<br/>value = [2947, 3231]>, fillcolor="#eef6fd"] ;
1 -> 27 ;
28 [label=<application_type &le; 0.5<br/>gini = 0.5<br/>samples = 2811<br/>value = [1412, 1399]>, fillcolor="#fffefd"] ;
27 -> 28 ;
29 [label=<initial_list_status &le; 0.5<br/>gini = 0.5<br/>samples = 2586<br/>value = [1314, 1272]>, fillcolor="#fefbf9"] ;
28 -> 29 ;
30 [label=<home_ownership &le; 1.5<br/>gini = 0.5<br/>samples = 2317<br/>value = [1167, 1150]>, fillcolor="#fffdfc"] ;
29 -> 30 ;
31 [label=<gini = 0.5<br/>samples = 1776<br/>value = [907, 869]>, fillcolor="#fefaf7"] ;
30 -> 31 ;
32 [label=<home_ownership &le; 2.5<br/>gini = 0.499<br/>samples = 541<br/>value = [260, 281]>, fillcolor="#f0f8fd"] ;
30 -> 32 ;
33 [label=<gini = 0.499<br/>samples = 513<br/>value = [245, 268]>, fillcolor="#eef7fd"] ;
32 -> 33 ;
34 [label=<gini = 0.497<br/>samples = 28<br/>value = [15, 13]>, fillcolor="#fceee5"] ;
32 -> 34 ;
35 [label=<home_ownership &le; 2.5<br/>gini = 0.496<br/>samples = 269<br/>value = [147, 122]>, fillcolor="#fbeadd"] ;
29 -> 35 ;
36 [label=<home_ownership &le; 1.5<br/>gini = 0.496<br/>samples = 266<br/>value = [145, 121]>, fillcolor="#fbeade"] ;
35 -> 36 ;
37 [label=<gini = 0.495<br/>samples = 203<br/>value = [112, 91]>, fillcolor="#fae7da"] ;
36 -> 37 ;
38 [label=<gini = 0.499<br/>samples = 63<br/>value = [33, 30]>, fillcolor="#fdf4ed"] ;
36 -> 38 ;
39 [label=<gini = 0.444<br/>samples = 3<br/>value = [2, 1]>, fillcolor="#f2c09c"] ;
35 -> 39 ;
40 [label=<initial_list_status &le; 0.5<br/>gini = 0.492<br/>samples = 225<br/>value = [98, 127]>, fillcolor="#d2e9f9"] ;
28 -> 40 ;
41 [label=<debt_settlement_flag &le; 0.5<br/>gini = 0.483<br/>samples = 203<br/>value = [83, 120]>, fillcolor="#c2e1f7"] ;
40 -> 41 ;
42 [label=<home_ownership &le; 1.5<br/>gini = 0.484<br/>samples = 202<br/>value = [83, 119]>, fillcolor="#c3e1f7"] ;
41 -> 42 ;
43 [label=<gini = 0.481<br/>samples = 169<br/>value = [68, 101]>, fillcolor="#bedff7"] ;
42 -> 43 ;
44 [label=<gini = 0.496<br/>samples = 33<br/>value = [15, 18]>, fillcolor="#deeffb"] ;
42 -> 44 ;
45 [label=<gini = 0.0<br/>samples = 1<br/>value = [0, 1]>, fillcolor="#399de5"] ;
41 -> 45 ;
46 [label=<home_ownership &le; 1.5<br/>gini = 0.434<br/>samples = 22<br/>value = [15, 7]>, fillcolor="#f1bc95"] ;
40 -> 46 ;
47 [label=<gini = 0.337<br/>samples = 14<br/>value = [11, 3]>, fillcolor="#eca36f"] ;
46 -> 47 ;
48 [label=<gini = 0.5<br/>samples = 8<br/>value = [4, 4]>, fillcolor="#ffffff"] ;
46 -> 48 ;
49 [label=<initial_list_status &le; 0.5<br/>gini = 0.496<br/>samples = 3367<br/>value = [1535, 1832]>, fillcolor="#dfeffb"] ;
27 -> 49 ;
50 [label=<verification_status &le; 1.5<br/>gini = 0.495<br/>samples = 3089<br/>value = [1390, 1699]>, fillcolor="#dbedfa"] ;
49 -> 50 ;
51 [label=<application_type &le; 0.5<br/>gini = 0.498<br/>samples = 2283<br/>value = [1061, 1222]>, fillcolor="#e5f2fc"] ;
50 -> 51 ;
52 [label=<home_ownership &le; 1.5<br/>gini = 0.498<br/>samples = 2093<br/>value = [989, 1104]>, fillcolor="#eaf5fc"] ;
51 -> 52 ;
53 [label=<debt_settlement_flag &le; 0.5<br/>gini = 0.499<br/>samples = 1671<br/>value = [799, 872]>, fillcolor="#eef7fd"] ;
52 -> 53 ;
54 [label=<gini = 0.499<br/>samples = 1670<br/>value = [799, 871]>, fillcolor="#eff7fd"] ;
53 -> 54 ;
55 [label=<gini = 0.0<br/>samples = 1<br/>value = [0, 1]>, fillcolor="#399de5"] ;
53 -> 55 ;
56 [label=<home_ownership &le; 2.5<br/>gini = 0.495<br/>samples = 422<br/>value = [190, 232]>, fillcolor="#dbedfa"] ;
52 -> 56 ;
57 [label=<gini = 0.495<br/>samples = 402<br/>value = [180, 222]>, fillcolor="#daecfa"] ;
56 -> 57 ;
58 [label=<gini = 0.5<br/>samples = 20<br/>value = [10, 10]>, fillcolor="#ffffff"] ;
56 -> 58 ;
59 [label=<home_ownership &le; 2.5<br/>gini = 0.471<br/>samples = 190<br/>value = [72, 118]>, fillcolor="#b2d9f5"] ;
51 -> 59 ;
60 [label=<home_ownership &le; 1.5<br/>gini = 0.469<br/>samples = 189<br/>value = [71, 118]>, fillcolor="#b0d8f5"] ;
59 -> 60 ;
61 [label=<gini = 0.468<br/>samples = 147<br/>value = [55, 92]>, fillcolor="#afd8f5"] ;
60 -> 61 ;
62 [label=<gini = 0.472<br/>samples = 42<br/>value = [16, 26]>, fillcolor="#b3d9f5"] ;
60 -> 62 ;
63 [label=<gini = 0.0<br/>samples = 1<br/>value = [1, 0]>, fillcolor="#e58139"] ;
59 -> 63 ;
64 [label=<home_ownership &le; 2.5<br/>gini = 0.483<br/>samples = 806<br/>value = [329, 477]>, fillcolor="#c2e1f7"] ;
50 -> 64 ;
65 [label=<home_ownership &le; 1.5<br/>gini = 0.483<br/>samples = 797<br/>value = [324, 473]>, fillcolor="#c1e0f7"] ;
64 -> 65 ;
66 [label=<application_type &le; 0.5<br/>gini = 0.485<br/>samples = 582<br/>value = [241, 341]>, fillcolor="#c5e2f7"] ;
65 -> 66 ;
67 [label=<gini = 0.481<br/>samples = 444<br/>value = [179, 265]>, fillcolor="#bfdff7"] ;
66 -> 67 ;
68 [label=<gini = 0.495<br/>samples = 138<br/>value = [62, 76]>, fillcolor="#dbedfa"] ;
66 -> 68 ;
69 [label=<application_type &le; 0.5<br/>gini = 0.474<br/>samples = 215<br/>value = [83, 132]>, fillcolor="#b5dbf5"] ;
65 -> 69 ;
70 [label=<gini = 0.477<br/>samples = 158<br/>value = [62, 96]>, fillcolor="#b9dcf6"] ;
69 -> 70 ;
71 [label=<gini = 0.465<br/>samples = 57<br/>value = [21, 36]>, fillcolor="#acd6f4"] ;
69 -> 71 ;
72 [label=<gini = 0.494<br/>samples = 9<br/>value = [5, 4]>, fillcolor="#fae6d7"] ;
64 -> 72 ;
73 [label=<application_type &le; 0.5<br/>gini = 0.499<br/>samples = 278<br/>value = [145, 133]>, fillcolor="#fdf5ef"] ;
49 -> 73 ;
74 [label=<verification_status &le; 1.5<br/>gini = 0.5<br/>samples = 246<br/>value = [124, 122]>, fillcolor="#fffdfc"] ;
73 -> 74 ;
75 [label=<home_ownership &le; 1.5<br/>gini = 0.5<br/>samples = 193<br/>value = [94, 99]>, fillcolor="#f5fafe"] ;
74 -> 75 ;
76 [label=<gini = 0.499<br/>samples = 157<br/>value = [75, 82]>, fillcolor="#eef7fd"] ;
75 -> 76 ;
77 [label=<gini = 0.498<br/>samples = 36<br/>value = [19, 17]>, fillcolor="#fcf2ea"] ;
75 -> 77 ;
78 [label=<home_ownership &le; 2.5<br/>gini = 0.491<br/>samples = 53<br/>value = [30, 23]>, fillcolor="#f9e2d1"] ;
74 -> 78 ;
79 [label=<home_ownership &le; 1.5<br/>gini = 0.493<br/>samples = 52<br/>value = [29, 23]>, fillcolor="#fae5d6"] ;
78 -> 79 ;
80 [label=<gini = 0.495<br/>samples = 40<br/>value = [22, 18]>, fillcolor="#fae8db"] ;
79 -> 80 ;
81 [label=<gini = 0.486<br/>samples = 12<br/>value = [7, 5]>, fillcolor="#f8dbc6"] ;
79 -> 81 ;
82 [label=<gini = 0.0<br/>samples = 1<br/>value = [1, 0]>, fillcolor="#e58139"] ;
78 -> 82 ;
83 [label=<home_ownership &le; 1.5<br/>gini = 0.451<br/>samples = 32<br/>value = [21, 11]>, fillcolor="#f3c3a1"] ;
73 -> 83 ;
84 [label=<verification_status &le; 1.5<br/>gini = 0.48<br/>samples = 25<br/>value = [15, 10]>, fillcolor="#f6d5bd"] ;
83 -> 84 ;
85 [label=<gini = 0.497<br/>samples = 13<br/>value = [7, 6]>, fillcolor="#fbede3"] ;
84 -> 85 ;
86 [label=<gini = 0.444<br/>samples = 12<br/>value = [8, 4]>, fillcolor="#f2c09c"] ;
84 -> 86 ;
87 [label=<verification_status &le; 1.5<br/>gini = 0.245<br/>samples = 7<br/>value = [6, 1]>, fillcolor="#e9965a"] ;
83 -> 87 ;
88 [label=<gini = 0.375<br/>samples = 4<br/>value = [3, 1]>, fillcolor="#eeab7b"] ;
87 -> 88 ;
89 [label=<gini = 0.0<br/>samples = 3<br/>value = [3, 0]>, fillcolor="#e58139"] ;
87 -> 89 ;
90 [label=<home_ownership &le; 2.5<br/>gini = 0.386<br/>samples = 348<br/>value = [91, 257]>, fillcolor="#7fc0ee"] ;
0 -> 90 [labeldistance=2.5, labelangle=-45, headlabel="False"] ;
91 [label=<verification_status &le; 1.5<br/>gini = 0.388<br/>samples = 345<br/>value = [91, 254]>, fillcolor="#80c0ee"] ;
90 -> 91 ;
92 [label=<initial_list_status &le; 0.5<br/>gini = 0.399<br/>samples = 283<br/>value = [78, 205]>, fillcolor="#84c2ef"] ;
91 -> 92 ;
93 [label=<home_ownership &le; 1.5<br/>gini = 0.393<br/>samples = 260<br/>value = [70, 190]>, fillcolor="#82c1ef"] ;
92 -> 93 ;
94 [label=<verification_status &le; 0.5<br/>gini = 0.384<br/>samples = 228<br/>value = [59, 169]>, fillcolor="#7ebfee"] ;
93 -> 94 ;
95 [label=<home_ownership &le; 0.5<br/>gini = 0.367<br/>samples = 120<br/>value = [29, 91]>, fillcolor="#78bced"] ;
94 -> 95 ;
96 [label=<application_type &le; 0.5<br/>gini = 0.397<br/>samples = 55<br/>value = [15, 40]>, fillcolor="#83c2ef"] ;
95 -> 96 ;
97 [label=<gini = 0.364<br/>samples = 46<br/>value = [11, 35]>, fillcolor="#77bced"] ;
96 -> 97 ;
98 [label=<gini = 0.494<br/>samples = 9<br/>value = [4, 5]>, fillcolor="#d7ebfa"] ;
96 -> 98 ;
99 [label=<application_type &le; 0.5<br/>gini = 0.338<br/>samples = 65<br/>value = [14, 51]>, fillcolor="#6fb8ec"] ;
95 -> 99 ;
100 [label=<gini = 0.362<br/>samples = 59<br/>value = [14, 45]>, fillcolor="#77bbed"] ;
99 -> 100 ;
101 [label=<gini = 0.0<br/>samples = 6<br/>value = [0, 6]>, fillcolor="#399de5"] ;
99 -> 101 ;
102 [label=<home_ownership &le; 0.5<br/>gini = 0.401<br/>samples = 108<br/>value = [30, 78]>, fillcolor="#85c3ef"] ;
94 -> 102 ;
103 [label=<application_type &le; 0.5<br/>gini = 0.37<br/>samples = 49<br/>value = [12, 37]>, fillcolor="#79bded"] ;
102 -> 103 ;
104 [label=<gini = 0.343<br/>samples = 41<br/>value = [9, 32]>, fillcolor="#71b9ec"] ;
103 -> 104 ;
105 [label=<gini = 0.469<br/>samples = 8<br/>value = [3, 5]>, fillcolor="#b0d8f5"] ;
103 -> 105 ;
106 [label=<application_type &le; 0.5<br/>gini = 0.424<br/>samples = 59<br/>value = [18, 41]>, fillcolor="#90c8f0"] ;
102 -> 106 ;
107 [label=<gini = 0.432<br/>samples = 57<br/>value = [18, 39]>, fillcolor="#94caf1"] ;
106 -> 107 ;
108 [label=<gini = 0.0<br/>samples = 2<br/>value = [0, 2]>, fillcolor="#399de5"] ;
106 -> 108 ;
109 [label=<application_type &le; 0.5<br/>gini = 0.451<br/>samples = 32<br/>value = [11, 21]>, fillcolor="#a1d0f3"] ;
93 -> 109 ;
110 [label=<verification_status &le; 0.5<br/>gini = 0.428<br/>samples = 29<br/>value = [9, 20]>, fillcolor="#92c9f1"] ;
109 -> 110 ;
111 [label=<gini = 0.484<br/>samples = 17<br/>value = [7, 10]>, fillcolor="#c4e2f7"] ;
110 -> 111 ;
112 [label=<gini = 0.278<br/>samples = 12<br/>value = [2, 10]>, fillcolor="#61b1ea"] ;
110 -> 112 ;
113 [label=<verification_status &le; 0.5<br/>gini = 0.444<br/>samples = 3<br/>value = [2, 1]>, fillcolor="#f2c09c"] ;
109 -> 113 ;
114 [label=<gini = 0.5<br/>samples = 2<br/>value = [1, 1]>, fillcolor="#ffffff"] ;
113 -> 114 ;
115 [label=<gini = 0.0<br/>samples = 1<br/>value = [1, 0]>, fillcolor="#e58139"] ;
113 -> 115 ;
116 [label=<home_ownership &le; 1.5<br/>gini = 0.454<br/>samples = 23<br/>value = [8, 15]>, fillcolor="#a3d1f3"] ;
92 -> 116 ;
117 [label=<verification_status &le; 0.5<br/>gini = 0.463<br/>samples = 22<br/>value = [8, 14]>, fillcolor="#aad5f4"] ;
116 -> 117 ;
118 [label=<application_type &le; 0.5<br/>gini = 0.486<br/>samples = 12<br/>value = [5, 7]>, fillcolor="#c6e3f8"] ;
117 -> 118 ;
119 [label=<home_ownership &le; 0.5<br/>gini = 0.496<br/>samples = 11<br/>value = [5, 6]>, fillcolor="#deeffb"] ;
118 -> 119 ;
120 [label=<gini = 0.48<br/>samples = 5<br/>value = [2, 3]>, fillcolor="#bddef6"] ;
119 -> 120 ;
121 [label=<gini = 0.5<br/>samples = 6<br/>value = [3, 3]>, fillcolor="#ffffff"] ;
119 -> 121 ;
122 [label=<gini = 0.0<br/>samples = 1<br/>value = [0, 1]>, fillcolor="#399de5"] ;
118 -> 122 ;
123 [label=<application_type &le; 0.5<br/>gini = 0.42<br/>samples = 10<br/>value = [3, 7]>, fillcolor="#8ec7f0"] ;
117 -> 123 ;
124 [label=<home_ownership &le; 0.5<br/>gini = 0.346<br/>samples = 9<br/>value = [2, 7]>, fillcolor="#72b9ec"] ;
123 -> 124 ;
125 [label=<gini = 0.5<br/>samples = 2<br/>value = [1, 1]>, fillcolor="#ffffff"] ;
124 -> 125 ;
126 [label=<gini = 0.245<br/>samples = 7<br/>value = [1, 6]>, fillcolor="#5aade9"] ;
124 -> 126 ;
127 [label=<gini = 0.0<br/>samples = 1<br/>value = [1, 0]>, fillcolor="#e58139"] ;
123 -> 127 ;
128 [label=<gini = 0.0<br/>samples = 1<br/>value = [0, 1]>, fillcolor="#399de5"] ;
116 -> 128 ;
129 [label=<home_ownership &le; 1.5<br/>gini = 0.331<br/>samples = 62<br/>value = [13, 49]>, fillcolor="#6eb7ec"] ;
91 -> 129 ;
130 [label=<home_ownership &le; 0.5<br/>gini = 0.361<br/>samples = 55<br/>value = [13, 42]>, fillcolor="#76bbed"] ;
129 -> 130 ;
131 [label=<initial_list_status &le; 0.5<br/>gini = 0.327<br/>samples = 34<br/>value = [7, 27]>, fillcolor="#6cb6ec"] ;
130 -> 131 ;
132 [label=<application_type &le; 0.5<br/>gini = 0.334<br/>samples = 33<br/>value = [7, 26]>, fillcolor="#6eb7ec"] ;
131 -> 132 ;
133 [label=<gini = 0.375<br/>samples = 16<br/>value = [4, 12]>, fillcolor="#7bbeee"] ;
132 -> 133 ;
134 [label=<gini = 0.291<br/>samples = 17<br/>value = [3, 14]>, fillcolor="#63b2eb"] ;
132 -> 134 ;
135 [label=<gini = 0.0<br/>samples = 1<br/>value = [0, 1]>, fillcolor="#399de5"] ;
131 -> 135 ;
136 [label=<initial_list_status &le; 0.5<br/>gini = 0.408<br/>samples = 21<br/>value = [6, 15]>, fillcolor="#88c4ef"] ;
130 -> 136 ;
137 [label=<application_type &le; 0.5<br/>gini = 0.388<br/>samples = 19<br/>value = [5, 14]>, fillcolor="#80c0ee"] ;
136 -> 137 ;
138 [label=<gini = 0.415<br/>samples = 17<br/>value = [5, 12]>, fillcolor="#8bc6f0"] ;
137 -> 138 ;
139 [label=<gini = 0.0<br/>samples = 2<br/>value = [0, 2]>, fillcolor="#399de5"] ;
137 -> 139 ;
140 [label=<application_type &le; 0.5<br/>gini = 0.5<br/>samples = 2<br/>value = [1, 1]>, fillcolor="#ffffff"] ;
136 -> 140 ;
141 [label=<gini = 0.0<br/>samples = 1<br/>value = [0, 1]>, fillcolor="#399de5"] ;
140 -> 141 ;
142 [label=<gini = 0.0<br/>samples = 1<br/>value = [1, 0]>, fillcolor="#e58139"] ;
140 -> 142 ;
143 [label=<gini = 0.0<br/>samples = 7<br/>value = [0, 7]>, fillcolor="#399de5"] ;
129 -> 143 ;
144 [label=<gini = 0.0<br/>samples = 3<br/>value = [0, 3]>, fillcolor="#399de5"] ;
90 -> 144 ;
{rank=same ; 0} ;
{rank=same ; 1; 90} ;
{rank=same ; 2; 27; 91} ;
{rank=same ; 3; 16; 28; 49; 92; 129} ;
{rank=same ; 4; 13; 17; 24; 29; 40; 50; 73; 93; 116; 130} ;
{rank=same ; 5; 10; 18; 21; 30; 35; 41; 46; 51; 64; 74; 83; 94; 109; 117; 131; 136} ;
{rank=same ; 6; 32; 36; 42; 52; 59; 65; 75; 78; 84; 87; 95; 102; 110; 113; 118; 123; 132; 137; 140} ;
{rank=same ; 53; 56; 60; 66; 69; 79; 96; 99; 103; 106; 119; 124} ;
{rank=same ; 7; 8; 9; 11; 12; 14; 15; 19; 20; 22; 23; 25; 26; 31; 33; 34; 37; 38; 39; 43; 44; 45; 47; 48; 54; 55; 57; 58; 61; 62; 63; 67; 68; 70; 71; 72; 76; 77; 80; 81; 82; 85; 86; 88; 89; 97; 98; 100; 101; 104; 105; 107; 108; 111; 112; 114; 115; 120; 121; 122; 125; 126; 127; 128; 133; 134; 135; 138; 139; 141; 142; 143; 144} ;
}